Date,EW_LogRet
2020-10-20,0.01001601741071928
2020-10-21,-0.006751154411849869
2020-10-22,0.01242500370405258
2020-10-23,0.003975242281049104
2020-10-26,-0.020317744415073877
2020-10-27,-0.023030466319759805
2020-10-28,-0.025846567063712796
2020-10-29,0.012511803560744675
2020-10-30,0.00027505434426145425
2020-11-02,0.023778605792428607
2020-11-03,0.0192216081599699
2020-11-04,-0.009637363536275041
2020-11-05,0.017185150904155604
2020-11-06,-0.010113075533159968
2020-11-09,0.07868746208165188
2020-11-10,0.006251931627091289
2020-11-11,-0.007058234565956609
2020-11-12,-0.018133015946391173
2020-11-13,0.020946290889436746
2020-11-16,0.018977067426811465
2020-11-17,-0.002088416375931432
2020-11-18,-0.014176427045408566
2020-11-19,0.009520971835764102
2020-11-20,-0.006599636210125627
2020-11-23,0.015217101597286698
2020-11-24,0.03029155089927595
2020-11-25,0.00017394954482382552
2020-11-27,-0.003860517262062608
2020-11-30,-0.02296566048218117
2020-12-01,0.015230914007554523
2020-12-02,0.007532709822463941
2020-12-03,0.0011701352794052462
2020-12-04,0.012768349675575387
2020-12-07,-0.01095132398034687
2020-12-08,-0.003672845320323253
2020-12-09,-0.0037497367232504648
2020-12-10,-0.0012208759957073488
2020-12-11,-0.007830893329225276
2020-12-14,-0.010377027859850927
2020-12-15,0.01988584032591008
2020-12-16,-0.0003103583638008149
2020-12-17,0.0038075001332760917
2020-12-18,-0.01727008727729018
2020-12-21,0.011532084327073944
2020-12-22,-0.005710971381750824
2020-12-23,0.009296399612318661
2020-12-24,0.00215468898686147
2020-12-28,0.009422908139740678
2020-12-29,-0.008968010100876373
2020-12-30,0.003920179652371314
2020-12-31,0.014458577118569385
2021-01-04,-0.020211857958876436
2021-01-05,0.007389064929784681
2021-01-06,0.024534498179169213
2021-01-07,0.011980079187806737
2021-01-08,0.005988547413378243
2021-01-11,-0.004612367361476765
2021-01-12,0.009674761383879406
2021-01-13,0.006077171435006334
2021-01-14,0.008709976499052922
2021-01-15,-0.011239502230143049
2021-01-19,-0.004065159467192627
2021-01-20,0.007833825801285037
2021-01-21,-0.0054222116882160915
2021-01-22,0.0006620423226596272
2021-01-25,0.0018236606550390269
2021-01-26,0.003830715947281785
2021-01-27,-0.026458036546085507
2021-01-28,0.01217065727351922
2021-01-29,-0.02044401958638724
2021-02-01,0.014075624288312313
2021-02-02,0.017301459685826383
2021-02-03,0.005342903547157643
2021-02-04,0.016452993508405376
2021-02-05,0.0010333273732829633
2021-02-08,0.011249089835079704
2021-02-09,0.004253844432894215
2021-02-10,0.006443685131387997
2021-02-11,0.000877615544914061
2021-02-12,0.006069662747591793
2021-02-16,0.008468933874716195
2021-02-17,0.00340620538726812
2021-02-18,-0.005558211254141931
2021-02-19,0.009582827517890217
2021-02-22,0.004245645125571769
2021-02-23,0.005135588686418194
2021-02-24,0.017053831483875157
2021-02-25,-0.01708982577057913
2021-02-26,-0.025158474096445088
2021-03-01,0.015803898871212602
2021-03-02,-0.005246397908682369
2021-03-03,0.0033902947760451594
2021-03-04,-0.015816068358271443
2021-03-05,0.007082404200676721
2021-03-08,0.00929864957735225
2021-03-09,0.0010766456224737464
2021-03-10,0.019082768036309265
2021-03-11,0.005478502016113896
2021-03-12,0.014965820246030354
2021-03-15,0.006628828440797172
2021-03-16,-0.004479653411576374
2021-03-17,0.0032800028380087624
2021-03-18,0.003791724605458565
2021-03-19,-0.013513738008298855
2021-03-22,-0.0017848870354211334
2021-03-23,-0.009636348637942577
2021-03-24,-0.002616544486356236
2021-03-25,0.014484918475644957
2021-03-26,0.01802495221166626
2021-03-29,-0.0067507233491852486
2021-03-30,0.005426738392170629
2021-03-31,-0.007786546729121044
2021-04-01,0.014113902318675374
2021-04-05,0.0027132510740956743
2021-04-06,0.002464701056884994
2021-04-07,0.0059718667912099154
2021-04-08,-0.003918056564089265
2021-04-09,0.0053782253614996405
2021-04-12,0.0020063785936495293
2021-04-13,-0.006293824019587157
2021-04-14,0.0040175170456353505
2021-04-15,0.010264708448059422
2021-04-16,0.009661819677394474
2021-04-19,-0.00012094697571281998
2021-04-20,-0.007334757212788064
2021-04-21,0.010227032525183356
2021-04-22,-0.010649432107159965
2021-04-23,0.014922383830516448
2021-04-26,0.006294837909626821
2021-04-27,0.005838367315116762
2021-04-28,-0.0009121000869055833
2021-04-29,0.011556647106844611
2021-04-30,-0.006507963894640386
2021-05-03,0.0009427743446573893
2021-05-04,0.0009246684030136975
2021-05-05,-0.0003040710774322045
2021-05-06,0.013838874059014374
2021-05-07,0.008792941981186802
2021-05-10,-0.0007151934681514963
2021-05-11,-0.01611621668916405
2021-05-12,-0.01831831570278962
2021-05-13,0.012869377258053276
2021-05-14,0.01615551346070843
2021-05-17,0.002080180761512947
2021-05-18,-0.005726133676380649
2021-05-19,-0.005557512357506888
2021-05-20,0.007177070981661971
2021-05-21,0.005777636849147827
2021-05-24,0.011031110766991363
2021-05-25,-0.0020633018763248517
2021-05-26,0.004128351939668218
2021-05-27,0.0034026291495259796
2021-05-28,0.0029106448049221567
2021-06-01,0.016631071844272864
2021-06-02,0.007322696120259452
2021-06-03,-0.0003275413657443561
2021-06-04,0.002142991533729591
2021-06-07,0.0013201104482138543
2021-06-08,-0.002250539323836442
2021-06-09,-0.005288223361181504
2021-06-10,-0.0028551604529579865
2021-06-11,0.0008468884015076807
2021-06-14,-0.004370079873348367
2021-06-15,-0.007762795284287872
2021-06-16,-0.005507987299236074
2021-06-17,-0.016023042972096592
2021-06-18,-0.024876728134573103
2021-06-21,0.025278132008459044
2021-06-22,-0.0015708105524285508
2021-06-23,0.0035230218566197095
2021-06-24,0.005482128559591529
2021-06-25,0.010730303835501824
2021-06-28,-0.0009222507885370412
2021-06-29,-0.003466771231767025
2021-06-30,-0.0006853205272019158
2021-07-01,0.003868147585472084
2021-07-02,0.00040931699876808035
2021-07-06,-0.006268706977096136
2021-07-07,0.00039435281284274287
2021-07-08,-0.012393033595352805
2021-07-09,0.025016640962217698
2021-07-12,0.01201391216953718
2021-07-13,-0.014846523386340143
2021-07-14,0.0015258417003855694
2021-07-15,0.0007313112366217782
2021-07-16,-0.009289567349202688
2021-07-19,-0.02449116924931957
2021-07-20,0.028005861334283448
2021-07-21,0.0086679929513597
2021-07-22,-0.009876067690652066
2021-07-23,0.001685413783430265
2021-07-26,0.005650770953194206
2021-07-27,0.0006407440221679414
2021-07-28,-0.0026890720850213864
2021-07-29,0.007311485205417982
2021-07-30,-0.0041000822207855805
2021-08-02,0.00017551401655150638
2021-08-03,0.010719523774925972
2021-08-04,-0.005611901693077501
2021-08-05,0.013501587791115491
2021-08-06,0.013327065839472232
2021-08-09,-0.0007670143917367021
2021-08-10,0.0025785248555338595
2021-08-11,0.008726386582849341
2021-08-12,0.004500936471450512
2021-08-13,-0.0003305502188128415
2021-08-16,-0.0027404210992771705
2021-08-17,-0.006892610585544091
2021-08-18,-0.0095438530231398
2021-08-19,-0.0018398813660084811
2021-08-20,0.005606304391974255
2021-08-23,0.0029154319289311616
2021-08-24,0.003431616522465645
2021-08-25,0.007319015433747979
2021-08-26,-0.0007413309158320343
2021-08-27,0.011860173181160739
2021-08-30,-0.0030059012010680074
2021-08-31,-0.0039257990695588715
2021-09-01,0.00038553907324107093
2021-09-02,0.00599125044503703
2021-09-03,-0.003968932487005102
2021-09-07,-0.007348367322429799
2021-09-08,-0.002005921224382736
2021-09-09,-0.009357925676257676
2021-09-10,-0.011283539534641203
2021-09-13,0.010846302044905193
2021-09-14,-0.007770669736080173
2021-09-15,0.005769913700893269
2021-09-16,-0.0035057115630972163
2021-09-17,-0.009455516902191603
2021-09-20,-0.01652293211898903
2021-09-21,-0.0015666008616128794
2021-09-22,0.016250452126172935
2021-09-23,0.013183634493151103
2021-09-24,-0.004027312994015747
2021-09-27,-0.0007076280052179054
2021-09-28,-0.0122143116458985
2021-09-29,0.004576998501441191
2021-09-30,-0.016844380804921524
2021-10-01,0.011436845066764512
2021-10-04,-0.0020006891586978417
2021-10-05,0.007917498026884308
2021-10-06,0.0068551904456787055
2021-10-07,0.0029211573801124773
2021-10-08,-0.0036506810548148924
2021-10-11,-0.006053252786173113
2021-10-12,0.004970898954970223
2021-10-13,0.0026100716801523453
2021-10-14,0.015683658313235954
2021-10-15,0.018066055794386065
2021-10-18,0.007836815296557196
2021-10-19,0.0027438569879622327
2021-10-20,0.010862357951540372
2021-10-21,-0.0002383255883610608
2021-10-22,0.009652571799884963
2021-10-25,0.0053510440854971485
2021-10-26,0.004956209519495147
2021-10-27,-0.01230165761752991
2021-10-28,0.013715401048588266
2021-10-29,-0.006573589953372742
2021-11-01,0.0014957098102103003
2021-11-02,0.012409420907713794
2021-11-03,0.006432881086435012
2021-11-04,-0.011753322476531155
2021-11-05,0.0026853740610995303
2021-11-08,0.0028995532767755535
2021-11-09,-0.0035790080691244894
2021-11-10,-0.003759207891757225
2021-11-11,0.004270187386039735
2021-11-12,0.0001387207693153358
2021-11-15,-0.0026002018886197792
2021-11-16,-0.005916802387263482
2021-11-17,-0.0043642687876587535
2021-11-18,-0.0007338408671821643
2021-11-19,-0.010282854065784826
2021-11-22,0.00789561681703881
2021-11-23,0.015413090455301828
2021-11-24,0.0023472352210206168
2021-11-26,-0.03246475653790732
2021-11-29,0.007333069733392176
2021-11-30,-0.02225015270332256
2021-12-01,-0.015748118880936225
2021-12-02,0.026184618167576848
2021-12-03,-0.011838429378234778
2021-12-06,0.01227425719520086
2021-12-07,0.01842883365463471
2021-12-08,-0.00154110319797895
2021-12-09,-0.009269622790009986
2021-12-10,0.0019418993802624675
2021-12-13,-0.004378912061094731
2021-12-14,-0.0032764323038566106
2021-12-15,0.0058251794258472964
2021-12-16,0.010775844962528543
2021-12-17,-0.016983567236266588
2021-12-20,-0.015307052618103648
2021-12-21,0.018105066007447348
2021-12-22,0.0058747093040899
2021-12-23,0.000611492839180744
2021-12-27,0.014574984699611746
2021-12-28,0.0009282398893583149
2021-12-29,0.001612017281885819
2021-12-30,0.0005239912861321229
2021-12-31,-0.0003872499240190133
2022-01-03,0.009867761535082323
2022-01-04,0.015542238739868736
2022-01-05,-0.023190773817891055
2022-01-06,0.00709041526535044
2022-01-07,0.0014515043051697941
2022-01-10,-0.0023954513158193223
2022-01-11,0.003428857229419474
2022-01-12,-0.0018865822584985831
2022-01-13,-0.0039544451443503156
2022-01-14,-0.01724144482301326
2022-01-18,-0.023035785123751058
2022-01-19,-0.012353020229997418
2022-01-20,-0.0075981818070976525
2022-01-21,-0.010046416644412144
2022-01-24,-0.003931187073294723
2022-01-25,0.007432512826939892
2022-01-26,-0.004426474719310798
2022-01-27,-0.01230002879729528
2022-01-28,0.022175901875876827
2022-01-31,0.009021307004241294
2022-02-01,0.006828517823839999
2022-02-02,0.007634525149104056
2022-02-03,-0.012520343946655294
2022-02-04,0.005698453917137465
2022-02-07,0.0037108915741618353
2022-02-08,-0.002559853797186368
2022-02-09,0.012792341042276471
2022-02-10,-0.017982154679958343
2022-02-11,-0.013148230610237751
2022-02-14,-0.010232093292257194
2022-02-15,0.008685641194705827
2022-02-16,-0.00023768530087662967
2022-02-17,-0.019582135529880827
2022-02-18,-0.006125265075811421
2022-02-22,-0.006232810934666988
2022-02-23,-0.015399362181294183
2022-02-24,-0.00017416957171230847
2022-02-25,0.024992558100696647
2022-02-28,-0.021447754085457415
2022-03-01,-0.02545569760507842
2022-03-02,0.021651492550026106
2022-03-03,0.0002675524433775997
2022-03-04,-0.015983357007234706
2022-03-07,-0.03690342943181511
2022-03-08,-0.0031407663783242948
2022-03-09,0.031693021271400355
2022-03-10,-0.003370136268637831
2022-03-11,-0.010209257995880114
2022-03-14,0.004874526297801195
2022-03-15,0.009304825266598272
2022-03-16,0.024100007786866023
2022-03-17,0.010045819388002466
2022-03-18,0.0007082612820972788
2022-03-21,-0.006707394251773574
2022-03-22,0.014914945827757091
2022-03-23,-0.019389778633410567
2022-03-24,0.0018617021151914352
2022-03-25,0.012025162041453924
2022-03-28,0.0050704165020697845
2022-03-29,0.019499403132831727
2022-03-30,-0.010657308245113555
2022-03-31,-0.0207406006929304
2022-04-01,0.01043779869340724
2022-04-04,-0.0008108271413126554
2022-04-05,-0.007918828373462054
2022-04-06,-0.001867400719035807
2022-04-07,-0.0077219864931862515
2022-04-08,0.007688796087044176
2022-04-11,-0.00630227436670793
2022-04-12,-0.008859055258209169
2022-04-13,-0.0011623310400519973
2022-04-14,-0.014481014598912474
2022-04-18,0.007663757930790073
2022-04-19,0.021059618189011572
2022-04-20,0.013268352283943482
2022-04-21,-0.011280912168234318
2022-04-22,-0.02703302360873282
2022-04-25,-0.0037783434404561962
2022-04-26,-0.021489231788369843
2022-04-27,-0.005473155682246257
2022-04-28,0.01292678083840804
2022-04-29,-0.045450043992256564
2022-05-02,-0.00907723648637482
2022-05-03,0.013888154115320033
2022-05-04,0.025687395948174915
2022-05-05,-0.02960301073895938
2022-05-06,-0.007756581706274789
2022-05-09,-0.0317865666383001
2022-05-10,-0.01755517291274844
2022-05-11,-0.009572130256663054
2022-05-12,0.0015385166558636722
2022-05-13,0.02028051101595084
2022-05-16,-0.010269471907530378
2022-05-17,0.022593181077636075
2022-05-18,-0.030777065282273502
2022-05-19,-0.005974634384479412
2022-05-20,0.003000002522908937
2022-05-23,0.023962856460783662
2022-05-24,0.005363764879377136
2022-05-25,0.007669001248171119
2022-05-26,0.01502518322796477
2022-05-27,0.018992670476310262
2022-05-31,-0.0031353951074845243
2022-06-01,-0.0135355401659274
2022-06-02,0.01557194479274063
2022-06-03,-0.013343588855882589
2022-06-06,-0.0011504595439335134
2022-06-07,0.009473970138670951
2022-06-08,-0.02151383690611145
2022-06-09,-0.025899785835504053
2022-06-10,-0.038318089583377145
2022-06-13,-0.0384391012415545
2022-06-14,-0.01153132644559642
2022-06-15,0.021361699346873025
2022-06-16,-0.0183461303279001
2022-06-17,0.0037205703253325303
2022-06-21,0.022099759777418227
2022-06-22,0.0024902892357025527
2022-06-23,0.008911503771162213
2022-06-24,0.029126634569259742
2022-06-27,-0.004460080392496366
2022-06-28,-0.008300514246010568
2022-06-29,-0.006566692757562253
2022-06-30,-0.013651968999890138
2022-07-01,0.014179486844579738
2022-07-05,-0.001981291724988903
2022-07-06,-0.005191353266033918
2022-07-07,0.010175916475686973
2022-07-08,-0.004403149980768278
2022-07-11,-0.00515726599134151
2022-07-12,-0.002379421952027671
2022-07-13,-0.010319916669539454
2022-07-14,-0.01481058601782109
2022-07-15,0.033260426744862445
2022-07-18,-0.0031634525397458728
2022-07-19,0.03492356375854046
2022-07-20,-0.0007291894268316537
2022-07-21,0.01022110856426742
2022-07-22,0.001168880738889305
2022-07-25,0.0024560527294760766
2022-07-26,-0.008398995632154009
2022-07-27,0.012728867310536785
2022-07-28,0.020119852356635666
2022-07-29,0.009211749080881303
2022-08-01,-0.007504607793481637
2022-08-02,-0.014818919103016762
2022-08-03,0.011242550572337834
2022-08-04,-0.0026131948144565227
2022-08-05,0.010170794512832376
2022-08-08,-0.00010864573227912334
2022-08-09,0.007239397234383255
2022-08-10,0.022491544479953496
2022-08-11,0.00856933342812517
2022-08-12,0.015620106096707156
2022-08-15,0.0009432265855777298
2022-08-16,0.0006890175813231321
2022-08-17,-0.004841399460168582
2022-08-18,-0.003980086867202753
2022-08-19,-0.017423621149767032
2022-08-22,-0.022315239509120583
2022-08-23,-0.009279138184737662
2022-08-24,0.005420852728818895
2022-08-25,0.014831739264542213
2022-08-26,-0.030337421949110887
2022-08-29,-0.005746973783270912
2022-08-30,-0.005831685521129267
2022-08-31,-0.008735760188834357
2022-09-01,0.00261136616585698
2022-09-02,-0.010441010637948328
2022-09-06,0.0025022941078674085
2022-09-07,0.017803344966254082
2022-09-08,0.011391031303149047
2022-09-09,0.007818984383599254
2022-09-12,0.007754495495813314
2022-09-13,-0.04267698275839957
2022-09-14,-0.00786996710175042
2022-09-15,-0.007336217699452272
2022-09-16,-0.0048122361961781945
2022-09-19,0.0042151032411885826
2022-09-20,-0.02163591312233771
2022-09-21,-0.021155657728646225
2022-09-22,-0.013244794050898243
2022-09-23,-0.016865494831366755
2022-09-26,-0.023635494176624725
2022-09-27,-0.008398514890096345
2022-09-28,0.01954279632712722
2022-09-29,-0.0256642452876682
2022-09-30,-0.0038120210110397365
2022-10-03,0.02356457518821298
2022-10-04,0.03225347441125134
2022-10-05,-0.015025029884815829
2022-10-06,-0.023675009515436385
2022-10-07,-0.022310545212104144
2022-10-10,-0.009226551401211416
2022-10-11,-0.0061915512072329955
2022-10-12,-0.004052539470642102
2022-10-13,0.036170582090168886
2022-10-14,-0.013796887472303378
2022-10-17,0.03659632683297722
2022-10-18,0.018006749676452834
2022-10-19,-0.01979482594570018
2022-10-20,-0.0044184523810879795
2022-10-21,0.025217355238006545
2022-10-24,0.0065802799349063005
2022-10-25,0.02557265838334638
2022-10-26,0.0036247805930403132
2022-10-27,0.005281105141110545
2022-10-28,0.018085559057235762
2022-10-31,-0.004375782273335833
2022-11-01,0.009098640618406196
2022-11-02,-0.012260221190938256
2022-11-03,-0.003894971607947166
2022-11-04,0.01788543985284835
2022-11-07,0.00452368600719876
2022-11-08,0.0021650814578188793
2022-11-09,-0.01401570242443325
2022-11-10,0.064620499789019
2022-11-11,-0.0002662107292931872
2022-11-14,-0.020181617815451563
2022-11-15,0.005718186350043347
2022-11-16,-0.010204249412398263
2022-11-17,-0.0048712753764695105
2022-11-18,0.008360656892808052
2022-11-21,0.0033333720984500105
2022-11-22,0.006728135242531865
2022-11-23,0.0014592073184903215
2022-11-25,0.00543667060219061
2022-11-28,-0.02640055210972971
2022-11-29,0.010204859474850572
2022-11-30,0.015713405751957826
2022-12-01,-0.008686577119713778
2022-12-02,-0.007742728239186423
2022-12-05,-0.02275283116226659
2022-12-06,-0.009419050754022131
2022-12-07,-0.0008377137743072644
2022-12-08,0.0011143709075397774
2022-12-09,-0.0001925078589628824
2022-12-12,0.010387470082094353
2022-12-13,0.011850589571866575
2022-12-14,-0.009885760539809035
2022-12-15,-0.017364261864511777
2022-12-16,-0.015396147573770821
2022-12-19,-0.0025461915573105963
2022-12-20,-0.0029230400231394075
2022-12-21,0.013373572468189602
2022-12-22,-0.00809342154785466
2022-12-23,0.006255770191067512
2022-12-27,-0.0019159425516968723
2022-12-28,-0.007235753100884984
2022-12-29,0.015144944185966328
2022-12-30,-0.00498013733370442
2023-01-03,0.006338246879953827
2023-01-04,0.01837169813881305
2023-01-05,-0.021288367424442168
2023-01-06,0.02223291055713806
2023-01-09,0.00016109845807994573
2023-01-10,0.0026852607605688493
2023-01-11,0.021849253159294778
2023-01-12,0.009141805792180173
2023-01-13,0.0067322793397577955
2023-01-17,-0.010303141223861048
2023-01-18,-0.013524313495473948
2023-01-19,-0.009798274247199987
2023-01-20,0.008566457920160964
2023-01-23,0.010321220800592296
2023-01-24,0.0028491756597300967
2023-01-25,0.004899255973645201
2023-01-26,0.010395576535750213
2023-01-27,0.006770463390923383
2023-01-30,-0.0094804869203127
2023-01-31,0.014177934816035704
2023-02-01,0.006071308031833292
2023-02-02,0.010510150248127072
2023-02-03,-0.007317628514178258
2023-02-06,-0.0034320409028639263
2023-02-07,0.00043387492180757363
2023-02-08,-0.0038193723798714517
2023-02-09,-0.01388779362736975
2023-02-10,0.0034404814791569992
2023-02-13,0.008418488073481837
2023-02-14,-0.00580352984560828
2023-02-15,0.001388538749943049
2023-02-16,-0.011579374234115123
2023-02-17,-0.001468838024808241
2023-02-21,-0.021773238064785407
2023-02-22,-0.005071267671755857
2023-02-23,0.007382147733628412
2023-02-24,-0.008533828561410536
2023-02-27,0.0017447527209962066
2023-02-28,-0.001997894447423279
2023-03-01,-0.011408005932207801
2023-03-02,0.004005748869725459
2023-03-03,0.017383348903831548
2023-03-06,-0.003375731002938275
2023-03-07,-0.027553420121318006
2023-03-08,0.004312622721119468
2023-03-09,-0.03670477473468247
2023-03-10,-0.019857260885317325
2023-03-13,-0.012753700793240943
2023-03-14,0.017334064312722677
2023-03-15,-0.014516109198225038
2023-03-16,0.003785308841550126
2023-03-17,-0.029630292312849547
2023-03-20,0.009976623419670946
2023-03-21,0.011154126477088086
2023-03-22,-0.030338220309135692
2023-03-23,-0.006843740703040421
2023-03-24,0.009201491141380627
2023-03-27,0.010037312189147125
2023-03-28,-0.0020489480482646675
2023-03-29,0.019205686766518033
2023-03-30,0.0030483478888935272
2023-03-31,0.017228460782860913
2023-04-03,-0.003131002912488206
2023-04-04,-0.008340402343179523
2023-04-05,-0.00473307022051057
2023-04-06,0.005732220191768201
2023-04-10,0.005700715099294501
2023-04-11,0.00808659682406234
2023-04-12,-0.001434807704165265
2023-04-13,0.0010301122357967269
2023-04-14,0.008686286821470497
2023-04-17,0.020449154998296637
2023-04-18,-0.0002558724652748607
2023-04-19,0.00395907908796376
2023-04-20,-0.006094859740530904
2023-04-21,-0.0025427698061214624
2023-04-24,-0.0013847798040920777
2023-04-25,-0.016057918012206792
2023-04-26,-0.012461665754662676
2023-04-27,0.01934764651902341
2023-04-28,0.010946898623541396
2023-05-01,-0.003994763535238322
2023-05-02,-0.01869721816563445
2023-05-03,-0.012307927657100367
2023-05-04,-0.009746580066248628
2023-05-05,0.018744214439833297
2023-05-08,-0.002152161945220112
2023-05-09,-0.005728483844844139
2023-05-10,0.000339020850153872
2023-05-11,-0.0017283538190270803
2023-05-12,-0.0024285879339861825
2023-05-15,0.0041876748865210065
2023-05-16,-0.0180199585813985
2023-05-17,0.025336616009206003
2023-05-18,-0.00240222506621496
2023-05-19,-0.0028932289461060206
2023-05-22,0.0065002717083139545
2023-05-23,-0.00794451709059815
2023-05-24,-0.01561065721551861
2023-05-25,8.259828230826074e-05
2023-05-26,0.01087780995286049
2023-05-30,0.0009559242498327415
2023-05-31,-0.005684216637846775
2023-06-01,0.0006869028666901651
2023-06-02,0.022757302313805315
2023-06-05,-0.005737321388630659
2023-06-06,0.011853702764630797
2023-06-07,0.014660286988477107
2023-06-08,-0.005581451744826655
2023-06-09,-0.0018752771154379173
2023-06-12,-0.0021891646571704703
2023-06-13,0.010266703971492408
2023-06-14,-0.0010923034838663367
2023-06-15,0.0061909552550756955
2023-06-16,0.0004342112944299041
2023-06-20,-0.013984565124478503
2023-06-21,-0.005897734963641035
2023-06-22,-0.01597109418672713
2023-06-23,-0.009881034820221403
2023-06-26,0.011114230860487304
2023-06-27,0.0068561368150266205
2023-06-28,-0.0007035960355594471
2023-06-29,0.017174185377147818
2023-06-30,0.004403500258703234
2023-07-03,0.01007105401773088
2023-07-05,-0.00039419231066568726
2023-07-06,-0.010434686358977902
2023-07-07,-0.00018019482144799248
2023-07-10,0.003172004331975266
2023-07-11,0.013479764979146184
2023-07-12,0.00812908557813076
2023-07-13,0.008501197448937512
2023-07-14,-0.004412759990845184
2023-07-17,0.0015720579846881817
2023-07-18,0.006415986491263401
2023-07-19,0.010826153962359517
2023-07-20,0.008375493205764894
2023-07-21,-0.0001183029917441595
2023-07-24,0.013241878567073989
2023-07-25,-0.012089176018875176
2023-07-26,0.008363346203587703
2023-07-27,-0.014745770129149398
2023-07-28,-0.0012507112466195605
2023-07-31,0.004053641624718296
2023-08-01,-0.0030717171975809614
2023-08-02,-0.01121132968998862
2023-08-03,-0.009689198956629523
2023-08-04,-0.00217617514231269
2023-08-07,0.009111081112922245
2023-08-08,-0.012010610413601323
2023-08-09,-0.005403147811196758
2023-08-10,-0.0016739451981173728
2023-08-11,0.0037861500567049596
2023-08-14,-0.005692424816199092
2023-08-15,-0.01732666138097535
2023-08-16,-0.012944118137366477
2023-08-17,-0.004793933101960425
2023-08-18,0.0009602123948475363
2023-08-21,-0.0068178680921262445
2023-08-22,-0.009049288296189843
2023-08-23,0.010557890224885997
2023-08-24,-0.005063510367475837
2023-08-25,0.0001633095563178155
2023-08-28,0.008658245404921659
2023-08-29,0.011543329788666314
2023-08-30,-0.0007428616757852521
2023-08-31,-0.006112554749869351
2023-09-01,0.0031830394774371184
2023-09-05,-0.009916716386021518
2023-09-06,-0.005294130745817642
2023-09-07,0.0007359246531649298
2023-09-08,0.001244823767356134
2023-09-11,0.0015323365267874563
2023-09-12,0.008634292013984381
2023-09-13,-0.002910577858000572
2023-09-14,0.01817164304940678
2023-09-15,-0.007611330425083104
2023-09-18,-0.003401328730554995
2023-09-19,-0.0043275177095873675
2023-09-20,-0.004454862728261696
2023-09-21,-0.024937494983151426
2023-09-22,-0.011322910679639376
2023-09-25,-0.0003154310292255699
2023-09-26,-0.017307414199436696
2023-09-27,-0.0053896828490443555
2023-09-28,0.005967132403946
2023-09-29,-0.0013007578076412272
2023-10-02,-0.01999363186363574
2023-10-03,-0.01880242085676855
2023-10-04,0.007423147912309261
2023-10-05,0.005644047050990197
2023-10-06,0.005847270041494438
2023-10-09,0.00519718655755018
2023-10-10,0.002445365840379279
2023-10-11,0.011290461335901749
2023-10-12,-0.00856775920265114
2023-10-13,0.004296754867889236
2023-10-16,0.010315304973944145
2023-10-17,0.0001486328794477223
2023-10-18,-0.020590044217655284
2023-10-19,-0.01063381347036631
2023-10-20,-0.009465178404660607
2023-10-23,-0.011829598736971942
2023-10-24,0.005534488501971716
2023-10-25,-0.01009450158955581
2023-10-26,0.01640463694902408
2023-10-27,-0.02409322655580624
2023-10-30,0.007139736460084476
2023-10-31,0.019946417797274636
2023-11-01,0.0049700777995724385
2023-11-02,0.030893759166079435
2023-11-03,0.02360594585647328
2023-11-06,-0.0084387826494221
2023-11-07,-0.005556671418427552
2023-11-08,0.0029548961859789014
2023-11-09,-0.012891365391247935
2023-11-10,0.011194395247320209
2023-11-13,-0.004748400573660492
2023-11-14,0.04395795017627176
2023-11-15,0.00715234545994847
2023-11-16,0.0025383846272833336
2023-11-17,0.0037734599116771204
2023-11-20,0.005161504113725734
2023-11-21,-0.0044959646970857735
2023-11-22,0.0035044146584438476
2023-11-24,0.003430833292418163
2023-11-27,0.000174075231370795
2023-11-28,0.0028517302675980824
2023-11-29,0.00801459745916711
2023-11-30,0.01085736178241266
2023-12-01,0.01644165873356288
2023-12-04,0.004830058600941896
2023-12-05,-0.007576137145929807
2023-12-06,-0.002228814490608469
2023-12-07,0.0036183427532466696
2023-12-08,0.0038379341645205386
2023-12-11,0.004653582144364877
2023-12-12,0.002107733010887481
2023-12-13,0.0329172609429157
2023-12-14,0.040634667608718464
2023-12-15,-0.00640816268987311
2023-12-18,-0.007803210796171052
2023-12-19,0.007604715766690848
2023-12-20,-0.012766699650715365
2023-12-21,0.004747820023066307
2023-12-22,0.002311703902236637
2023-12-26,0.007721169986824663
2023-12-27,0.003434033733858811
2023-12-28,0.004024358856072901
2023-12-29,-0.008158421624665398
2024-01-02,0.006383931673285783
2024-01-03,-0.017732976783311215
2024-01-04,0.003003515637440013
2024-01-05,0.0039780388508881106
2024-01-08,0.009167917216294348
2024-01-09,-0.008539139003892008
2024-01-10,-0.0002688453521362333
2024-01-11,-0.005179232576874042
2024-01-12,-0.003022652193386575
2024-01-16,-0.00916516955736794
2024-01-17,-0.01246047742032756
2024-01-18,-0.0032045253476476044
2024-01-19,0.01335486470005764
2024-01-22,0.0006495593983519797
2024-01-23,-0.001512469062923584
2024-01-24,-0.008315441649186931
2024-01-25,0.009019965989061473
2024-01-26,-0.002661731809061773
2024-01-29,0.0036700123450752516
2024-01-30,0.0038121407074869665
2024-01-31,-0.008449705006207816
2024-02-01,0.002627945976092743
2024-02-02,-0.005503441644353583
2024-02-05,-0.01498290607543238
2024-02-06,0.013108956886852482
2024-02-07,0.0019054660971498452
2024-02-08,0.0012851518898038654
2024-02-09,0.0019489168043418127
2024-02-12,0.0037203467520215325
2024-02-13,-0.019162978602606674
2024-02-14,0.0031835134402092417
2024-02-15,0.025324704585183835
2024-02-16,-0.000916092805912559
2024-02-20,3.8050408875342976e-05
2024-02-21,0.005857195107883386
2024-02-22,0.0035679360618211843
2024-02-23,0.002392434463161697
2024-02-26,-0.005987202378677278
2024-02-27,0.0023317465783722325
2024-02-28,0.007705786941436203
2024-02-29,0.0036972325305564867
2024-03-01,0.003174056483593308
2024-03-04,0.015329363652592647
2024-03-05,-0.0027392221330203516
2024-03-06,0.004070766838122403
2024-03-07,-0.0026509804087410196
2024-03-08,0.006520521964170625
2024-03-11,-0.0032749831721210518
2024-03-12,0.0017322375797450005
2024-03-13,0.0010529087762128438
2024-03-14,-0.014948089664528437
2024-03-15,2.9350048430634857e-05
2024-03-18,0.0010573709789213682
2024-03-19,0.0018023312110127027
2024-03-20,0.009664079322180108
2024-03-21,0.013078498791215195
2024-03-22,-0.013276328095888319
2024-03-25,-0.004379680654600111
2024-03-26,-0.0007104053927210673
2024-03-27,0.020341971252975106
2024-03-28,0.00587290744634842
2024-04-01,-0.013758900200662866
2024-04-02,-0.009603235869935113
2024-04-03,0.0006910329821644132
2024-04-04,-0.011912437922210061
2024-04-05,0.006516636956774332
2024-04-08,0.007768528514327312
2024-04-09,0.004860853281737871
2024-04-10,-0.02905981566959485
2024-04-11,-0.0029515510558082857
2024-04-12,-0.017304386932166738
2024-04-15,-0.0032062156666737784
2024-04-16,-0.016857954054303775
2024-04-17,-0.000278388260827752
2024-04-18,0.0031343025088781504
2024-04-19,0.011209012630878284
2024-04-22,0.014352906087620526
2024-04-23,0.00911090075954376
2024-04-24,-0.0017355167108974842
2024-04-25,-0.003343980387848931
2024-04-26,0.001903040848952911
2024-04-29,0.004928530690400705
2024-04-30,-0.014929418247639239
2024-05-01,0.002340317795333792
2024-05-02,0.011424974546331288
2024-05-03,0.007159030033278326
2024-05-06,0.004774103713390125
2024-05-07,0.007553920367317578
2024-05-08,0.0009359463511934717
2024-05-09,0.012363936059718725
2024-05-10,0.0008334915681650958
2024-05-13,-0.0028225504655153707
2024-05-14,0.009237320456831186
2024-05-15,0.010967074837301074
2024-05-16,-0.001316567910287627
2024-05-17,0.0034135976161896535
2024-05-20,-0.011916643745822852
2024-05-21,0.0086530036053464
2024-05-22,-0.010435113405561813
2024-05-23,-0.01850404792791076
2024-05-24,0.00591122064195861
2024-05-28,-0.007926246697093232
2024-05-29,-0.008587314536529255
2024-05-30,0.008417029714687836
2024-05-31,0.02007849050687817
2024-06-03,-0.0019262282249998713
2024-06-04,0.0050825476611757354
2024-06-05,0.0011037595143755516
2024-06-06,-0.0022129846677298006
2024-06-07,-0.005222269657028468
2024-06-10,-0.0006133082556563677
2024-06-11,-0.012493631466630106
2024-06-12,0.007454100540261677
2024-06-13,0.00196088367753605
2024-06-14,-0.0004951577521587259
2024-06-17,0.0002676294081486608
2024-06-18,0.004637173499120065
2024-06-20,-0.000237231084907795
2024-06-21,-0.0033090618627921718
2024-06-24,0.016079191221771788
2024-06-25,-0.014378711944336613
2024-06-26,-0.003159819247786787
2024-06-27,0.0036426263915404914
2024-06-28,0.011156679518731503
2024-07-01,-0.0001717004275201327
2024-07-02,0.006967455339912279
2024-07-03,-1.684974366362952e-05
2024-07-05,-0.0029731909819527918
2024-07-08,0.0004557706090199272
2024-07-09,0.00782483082022699
2024-07-10,0.007364804019716977
2024-07-11,0.01324319918953887
2024-07-12,-0.004683004246164225
2024-07-15,0.008615885425533102
2024-07-16,0.019531509673833897
2024-07-17,0.010211909131579103
2024-07-18,-0.015245987590605407
2024-07-19,-0.0004057924448150378
2024-07-22,0.006201836518593257
2024-07-23,0.00046204503157706476
2024-07-24,-0.012989954593816733
2024-07-25,-0.0023657809450689693
2024-07-26,0.015362221743641212
2024-07-29,-0.0010009152327873413
2024-07-30,0.012928961113739588
2024-07-31,-0.007841042112757542
2024-08-01,-0.0020489140217277084
2024-08-02,-0.025044186958607346
2024-08-05,-0.024089260816638123
2024-08-06,0.019708663541442826
2024-08-07,-0.0029003982956963123
2024-08-08,0.011606030582199287
2024-08-09,0.005387394632129805
2024-08-12,-0.009317691707885064
2024-08-13,0.01028407730179598
2024-08-14,0.0071897803505349845
2024-08-15,0.003832619259467115
2024-08-16,0.003749111460895509
2024-08-19,0.008498538710739691
2024-08-20,-0.006665647195445434
2024-08-21,0.0007843204697576563
2024-08-22,0.005491379633535056
2024-08-23,0.018374383791242937
2024-08-26,0.0006203810811464015
2024-08-27,0.0013426000444899378
2024-08-28,0.0004317075493557157
2024-08-29,-0.0007769528778294209
2024-08-30,0.010947855374489722
2024-09-03,-0.0065736691904447605
2024-09-04,0.0015469517918893824
2024-09-05,-0.0071730273199834115
2024-09-06,-0.013947175230175822
2024-09-09,0.011388762302097519
2024-09-10,-0.004517243384812185
2024-09-11,-0.0035345310586907502
2024-09-12,-0.0038708408778938097
2024-09-13,0.0042690086421943866
2024-09-16,0.007011069369889979
2024-09-17,0.00201491104477471
2024-09-18,-0.0028486400578419035
2024-09-19,0.011396116935411966
2024-09-20,-0.002252723234498837
2024-09-23,0.0026350607799136487
2024-09-24,-0.0018553539960643214
2024-09-25,-0.00612027538213184
2024-09-26,0.002582891965340708
2024-09-27,-0.00023321687128757124
2024-09-30,0.005095137362070379
2024-10-01,-0.010869707669963518
2024-10-02,0.0012696098217303096
2024-10-03,-0.0074284172643762445
2024-10-04,0.00826202420165378
2024-10-07,-0.006458442439033755
2024-10-08,0.0010296736159140028
2024-10-09,0.004433115596279493
2024-10-10,-0.004669612857406736
2024-10-11,0.026381832971828445
2024-10-14,0.006131484361768943
2024-10-15,0.012600920085369192
2024-10-16,0.011919978599166305
2024-10-17,-0.006648369473318343
2024-10-18,0.004241234245356282
2024-10-21,-0.016006717429869997
2024-10-22,0.004584561636284425
2024-10-23,0.00402272865850417
2024-10-24,0.001632838897713793
2024-10-25,-0.017861544280796966
2024-10-28,0.010349997533744788
2024-10-29,-0.01072233309818003
2024-10-30,0.000998766276888227
2024-10-31,-0.013040698699544264
2024-11-01,-0.004116016909511337
2024-11-04,0.00027761559890205137
2024-11-05,0.013288552517822107
2024-11-06,0.032351717550355936
2024-11-07,-0.009184693116906867
2024-11-08,0.01256602119106361
2024-11-11,0.00666414322868828
2024-11-12,-0.00971664843328447
2024-11-13,0.006321833104130559
2024-11-14,-0.004969874592665979
2024-11-15,0.008470463569972067
2024-11-18,0.0017254231722596965
2024-11-19,-0.003028817193911898
2024-11-20,-0.003630230386495545
2024-11-21,0.009846857989352727
2024-11-22,0.008760291126307093
2024-11-25,0.005904022188970975
2024-11-26,0.002923799027312359
2024-11-27,0.003269272316608535
2024-11-29,-0.003959167617756318
2024-12-02,-0.011845176873128077
2024-12-03,-0.002593383086466702
2024-12-04,-0.004804404634347521
2024-12-05,0.002726012078125492
2024-12-06,0.00019227479397202973
2024-12-09,-0.0024424106060011597
2024-12-10,-0.012394902281802619
2024-12-11,-0.00040616103292544865
2024-12-12,-0.0030920984787908214
2024-12-13,-0.0030946249072861024
2024-12-16,-0.0009442288839542445
2024-12-17,-0.00823224694788682
2024-12-18,-0.03727888283316145
2024-12-19,-0.008728641356062133
2024-12-20,0.019179995453695857
2024-12-23,0.0030491202341984
2024-12-24,0.010779366519479252
2024-12-26,0.002268252512265814
2024-12-27,-0.009509619459716503
2024-12-30,-0.006076643122869938
2024-12-31,0.0031531437307410256
2025-01-02,-0.004294653343419764
2025-01-03,0.011185189157723542
2025-01-06,-0.004167763069596768
2025-01-07,-0.005029187845674114
2025-01-08,0.0017146526241654293
2025-01-10,-0.022288809983911393
2025-01-13,0.011599364634107157
2025-01-14,0.012680382155696139
2025-01-15,0.021247269839073515
2025-01-16,0.010817941871684193
2025-01-17,0.0060202888134856134
2025-01-21,0.014197758012343246
2025-01-22,-0.01391803103210838
2025-01-23,0.009193524018140133
2025-01-24,-0.0003168063459245295
2025-01-27,0.01535592102945697
2025-01-28,-0.0038354072549108124
2025-01-29,-0.007210266497503396
2025-01-30,0.010606476289991458
2025-01-31,-0.0031436706750658495
2025-02-03,-0.010433792994219497
2025-02-04,0.002704642406497686
2025-02-05,0.011933736077094154
2025-02-06,0.006792600684850738
2025-02-07,-0.006514479045375933
2025-02-10,-0.004758944433398268
2025-02-11,0.008613253900557106
2025-02-12,-0.007825877510580738
2025-02-13,0.0057970605408358775
2025-02-14,0.0014124770012054185
2025-02-18,0.005629700389753576
2025-02-19,-0.001375193390430438
2025-02-20,-0.007758008524901409
2025-02-21,-0.008823385351350497
2025-02-24,-0.0025724502415973146
2025-02-25,0.0007784930703215468
2025-02-26,-0.0016381970899254892
2025-02-27,0.0008781291937358063
2025-02-28,0.020326994698243745
2025-03-03,-0.0040487906022017425
2025-03-04,-0.02795905012802233
2025-03-05,0.008267963483200517
2025-03-06,-0.024198288318498806
2025-03-07,-0.00466327935442356
2025-03-10,-0.028583375254663555
2025-03-11,-0.009654925146797283
2025-03-12,0.00012844619794710616
2025-03-13,-0.01568643883433594
2025-03-14,0.02211948667223636
2025-03-17,0.014930239962531903
2025-03-18,-0.0013110249155288951
2025-03-19,0.005602313914379807
2025-03-20,0.0004725804775618509
2025-03-21,-0.004690321001261921
2025-03-24,0.015923709210959355
2025-03-25,-0.0009456239508777594
2025-03-26,0.0011109526165127977
2025-03-27,-0.007243849395411155
2025-03-28,-0.012094396253551323
2025-03-31,0.010429853019840252
2025-04-01,-0.002550629637163109
2025-04-02,0.010459088920092943
2025-04-03,-0.06703764709704953
2025-04-04,-0.06179402330437188
2025-04-07,-0.008941521811724442
2025-04-08,-0.015036393846936596
2025-04-09,0.0700482492221244
2025-04-10,-0.031247626164493645
2025-04-11,0.012216181929940353
2025-04-14,0.016742817204384454
2025-04-15,0.006763133942459211
2025-04-16,-0.007338030000014358
2025-04-17,0.01454443042489588
2025-04-21,-0.016953799617481273
2025-04-22,0.025720970085636
2025-04-23,0.0067924448591291
2025-04-24,0.013148741035995603
2025-04-25,-0.00272262553144115
2025-04-28,0.004658418107141152
2025-04-29,0.007961958335920135
2025-04-30,0.002160163920652704
2025-05-01,0.0036324293215725017
2025-05-02,0.01581033616922249
2025-05-05,-0.0034773670779218195
2025-05-06,-0.007490855573500495
2025-05-07,0.00021568426499458493
2025-05-08,0.004890218294869742
2025-05-09,0.0025155038773827013
2025-05-12,0.02015968497222336
2025-05-13,-0.005411500935609335
2025-05-14,0.0005523802538418712
2025-05-15,0.010936069248706229
2025-05-16,0.008676951337981166
2025-05-19,-0.0008880336426869753
2025-05-20,-0.003806579678220378
2025-05-21,-0.025503687468358426
2025-05-22,-0.001633673569496322
2025-05-23,-0.0029366881484052454
2025-05-27,0.01868295589867261
2025-05-28,-0.0026582548218287913
2025-05-29,0.007648801909854499
2025-05-30,0.00019195322865876689
2025-06-02,-0.0005174758883917702
2025-06-03,0.0010429887621548589
2025-06-04,-0.0018867588761813305
2025-06-05,-0.0019109310292345697
2025-06-06,0.006747516020481524
2025-06-09,0.0027254555400392463
2025-06-10,0.0034734214344299295
2025-06-11,-0.001763489963303885
2025-06-12,0.0005603602218764308
2025-06-13,-0.013673059670057363
2025-06-16,0.007520700547336072
2025-06-17,-0.005669961046830477
2025-06-18,0.009602730466399024
2025-06-20,0.0037320417903400974
2025-06-23,0.013957884345141612
2025-06-24,0.00865342070918851
2025-06-25,-0.005417622938993065
2025-06-26,0.009891499565646543
2025-06-27,0.0013562022063778462
2025-06-30,0.006474397895002722
2025-07-01,0.009210669674092986
2025-07-02,0.006734411074795314
2025-07-03,0.005411459385184384
2025-07-07,-0.009492688043541007
2025-07-08,-0.010023945886864893
2025-07-09,-0.0007683599256567801
2025-07-10,0.008788230502368112
2025-07-11,-0.002715821245294315
2025-07-14,0.008928943929957956
2025-07-15,-0.02422044124129658
2025-07-16,0.010890394221411834
2025-07-17,0.0015428985061735141
2025-07-18,0.00407050665625476
2025-07-21,-0.0002247283988100089
2025-07-22,0.012475534668923824
2025-07-23,0.007809868959047093
2025-07-24,-0.0002119972267788044
2025-07-25,0.00423732495194027
2025-07-28,-0.013094870511246725
2025-07-29,0.0027591572141554693
2025-07-30,-0.010879907305484037
2025-07-31,-0.01495036327042496
2025-08-01,-0.014791037558206386
2025-08-04,0.009639310208942941
2025-08-05,0.0026543682603814593
2025-08-06,-0.0025008399562809775
2025-08-07,-0.003143263634784415
2025-08-08,0.002079223358890473
2025-08-11,-0.002323321662782407
2025-08-12,0.016325482332681503
2025-08-13,0.002480717575553029
2025-08-14,0.002584908649945728
2025-08-15,-0.00583160488917939
2025-08-18,-0.002246808526060639
2025-08-19,0.009767986381056417
2025-08-20,0.003290830745029029
2025-08-21,-0.00442746653554773
2025-08-22,0.01824026410572676
2025-08-25,-0.0034182249749871063
2025-08-26,0.003985847863424523
2025-08-27,0.002799458854177597
2025-08-28,9.945209027082353e-05
2025-08-29,0.00383710448542489
2025-09-02,-0.014909787960753141
2025-09-03,-0.004218642919529751
2025-09-04,0.010720008477585344
2025-09-05,-0.004661241926310334
2025-09-08,-0.002988297864906594
2025-09-09,0.006753663045461602
2025-09-10,-0.0023221767563053474
2025-09-11,0.01955129953302768
2025-09-12,-0.0027008920055398566
2025-09-15,-0.0023549991266575794
2025-09-16,-0.0005856060388593436
2025-09-17,0.006704423355445907
2025-09-18,0.002550108010830388
2025-09-19,0.001456040926094691
2025-09-22,-0.0008739532792511423
2025-09-23,0.0026202732302642966
2025-09-24,-0.00491741868343737
2025-09-25,0.002026707266290603
2025-09-26,0.009348593190082343
2025-09-29,0.0018461015579332434
2025-09-30,-0.0042020947104515665
2025-10-01,-0.01067872705297838
2025-10-02,-0.004096597404668178
2025-10-03,0.003957112859278897
2025-10-06,-0.006511287597708194
2025-10-07,-0.003003480992218083
2025-10-08,-0.008375535078852536
2025-10-09,-0.0007976845262967711
2025-10-10,-0.017318466626975074
2025-10-13,0.010314332459141956
2025-10-14,0.013123334202827026
2025-10-15,0.017733634162980762
2025-10-16,-0.014254867669363958
2025-10-17,0.004125826523552851
